{
  "metaData": {
    "sizes": [
      2,
      5,
      9,
      3,
      1
    ],
    "learningRate": 0.15,
    "epochs": 10,
    "errorThreshold": 0.001,
    "trainingName": "XOR_TRAINING"
  },
  "epochs": [
    [
      {
        "input": [
          0,
          0
        ],
        "data": {
          "targents": [
            0
          ],
          "outputs": [
            0.43577023428806855
          ],
          "errors": [
            [
              [
                0.038365020687115815,
                -0.012072897070119397,
                0.046431904404243496,
                0.06541806162185859,
                0.02322588714850548
              ],
              [
                0.08211194865807829,
                0.023370536961926317,
                0.08322250609331311,
                0.028867243492945244,
                -0.04795057315083483,
                -0.039848215092873646,
                -0.04519717549095443,
                0.03420173480222185,
                -0.03188143530141089
              ],
              [
                -0.07725919601682782,
                -0.17724488499268587,
                -0.014691000492393434
              ],
              [
                -0.43577023428806855
              ]
            ]
          ],
          "weights": [
            [
              [
                0.20735534221385632,
                0.04985859399659365
              ],
              [
                0.41344819250054066,
                0.25448675329444015
              ],
              [
                0.4034879647152654,
                0.26598946532970436
              ],
              [
                -0.352744720157367,
                0.4967223306695314
              ],
              [
                0.10864799492722077,
                0.0873556253708383
              ]
            ],
            [
              [
                0.44369886091307886,
                -0.38687075813736144,
                0.38095305373939986,
                0.4231296719327752,
                0.12426691549724275
              ],
              [
                0.35738821393762615,
                -0.35652212769227043,
                0.15526207157015004,
                -0.08246251316270665,
                -0.22991548238319914
              ],
              [
                0.0013718747549202688,
                0.0773641616581747,
                0.42451240377624655,
                -0.06177082709156207,
                0.31492574329114953
              ],
              [
                -0.3290939441586958,
                0.1939509610717331,
                -0.44707432782548145,
                0.3781701157097879,
                -0.06525901315323605
              ],
              [
                -0.4373070629206323,
                -0.24287552333169465,
                -0.3515599730886249,
                -0.29242058734694354,
                0.32105962253543197
              ],
              [
                -0.30997950998298823,
                -0.03830904240681275,
                0.42962250596402796,
                -0.2857915520771328,
                0.13637342357644647
              ],
              [
                0.31729655617402974,
                -0.0679178912123164,
                0.26258816315573197,
                -0.1404264849182836,
                -0.24439358154690585
              ],
              [
                -0.3347458596139585,
                -0.43073273271021767,
                -0.3677371032908835,
                -0.07756433923117094,
                -0.015943963096886494
              ],
              [
                0.12912049119753077,
                -0.4666902670859287,
                -0.4438634842684266,
                0.06135563724111027,
                -0.1534732626754957
              ]
            ],
            [
              [
                -0.2893793704513018,
                0.2717203311976291,
                -0.22362347505993943,
                0.06490192667676474,
                -0.24197206905558005,
                0.11148169107357402,
                -0.02070857741653511,
                -0.04089346035076362,
                -0.312449684751796
              ],
              [
                -0.3242408855724665,
                -0.2155456973937157,
                -0.34726271160405237,
                -0.20306431609110026,
                0.36758808146018995,
                0.21213003097539582,
                0.2559796536829573,
                -0.1770436525430956,
                0.33183935112567736
              ],
              [
                -0.2025412356640902,
                -0.46740144072833223,
                -0.36019088864269916,
                0.10089474337438673,
                0.06621111824250021,
                -0.4750249074111955,
                0.05408002832699995,
                -0.0014282712889037953,
                -0.21610435751894028
              ]
            ],
            [
              [
                0.17184525173079326,
                0.4006500115329009,
                0.027283000724906373
              ]
            ]
          ],
          "biases": [
            [
              0.2109643969946011,
              -0.031570621669553434,
              -0.3100959094976151,
              -0.4174574796164703,
              0.43592857812007085
            ],
            [
              -0.3541934550964861,
              0.23537646127685258,
              0.3775848348207062,
              0.07515689299830335,
              -0.002812408651329176,
              -0.0976298728097454,
              -0.13500647479513875,
              -0.38792922218455467,
              -0.4939060401346528
            ],
            [
              -0.3942538614223878,
              -0.30804432275014854,
              0.3797189076051442
            ],
            [
              -0.5021128628059837
            ]
          ],
          "gradients": [
            [
              [
                0.17184525173079326,
                0.4006500115329009,
                0.027283000724906373
              ]
            ],
            [
              [
                -0.2893793704513018,
                0.2717203311976291,
                -0.22362347505993943,
                0.06490192667676474,
                -0.24197206905558005,
                0.11148169107357402,
                -0.02070857741653511,
                -0.04089346035076362,
                -0.312449684751796
              ],
              [
                -0.3242408855724665,
                -0.2155456973937157,
                -0.34726271160405237,
                -0.20306431609110026,
                0.36758808146018995,
                0.21213003097539582,
                0.2559796536829573,
                -0.1770436525430956,
                0.33183935112567736
              ],
              [
                -0.2025412356640902,
                -0.46740144072833223,
                -0.36019088864269916,
                0.10089474337438673,
                0.06621111824250021,
                -0.4750249074111955,
                0.05408002832699995,
                -0.0014282712889037953,
                -0.21610435751894028
              ]
            ],
            [
              [
                0.44369886091307886,
                -0.38687075813736144,
                0.38095305373939986,
                0.4231296719327752,
                0.12426691549724275
              ],
              [
                0.35738821393762615,
                -0.35652212769227043,
                0.15526207157015004,
                -0.08246251316270665,
                -0.22991548238319914
              ],
              [
                0.0013718747549202688,
                0.0773641616581747,
                0.42451240377624655,
                -0.06177082709156207,
                0.31492574329114953
              ],
              [
                -0.3290939441586958,
                0.1939509610717331,
                -0.44707432782548145,
                0.3781701157097879,
                -0.06525901315323605
              ],
              [
                -0.4373070629206323,
                -0.24287552333169465,
                -0.3515599730886249,
                -0.29242058734694354,
                0.32105962253543197
              ],
              [
                -0.30997950998298823,
                -0.03830904240681275,
                0.42962250596402796,
                -0.2857915520771328,
                0.13637342357644647
              ],
              [
                0.31729655617402974,
                -0.0679178912123164,
                0.26258816315573197,
                -0.1404264849182836,
                -0.24439358154690585
              ],
              [
                -0.3347458596139585,
                -0.43073273271021767,
                -0.3677371032908835,
                -0.07756433923117094,
                -0.015943963096886494
              ],
              [
                0.12912049119753077,
                -0.4666902670859287,
                -0.4438634842684266,
                0.06135563724111027,
                -0.1534732626754957
              ]
            ],
            [
              [
                0.20735534221385632,
                0.04985859399659365
              ],
              [
                0.41344819250054066,
                0.25448675329444015
              ],
              [
                0.4034879647152654,
                0.26598946532970436
              ],
              [
                -0.352744720157367,
                0.4967223306695314
              ],
              [
                0.10864799492722077,
                0.0873556253708383
              ]
            ]
          ]
        }
      },
      {
        "input": [
          0,
          1
        ],
        "data": {
          "targents": [
            1
          ],
          "outputs": [
            0.4292492367638124
          ],
          "errors": [
            [
              [
                -0.04951922335325064,
                0.014653923110623576,
                -0.05946108627549539,
                -0.0850486531432966,
                -0.030358798912256006
              ],
              [
                -0.10568107771156508,
                -0.02991684372311321,
                -0.10695100504601485,
                -0.03849823556350263,
                0.061355054077461356,
                0.05204527456859183,
                0.05734620916396978,
                -0.04451790656384127,
                0.04187168562173816
              ],
              [
                0.09808080858386506,
                0.2286712998729906,
                0.015571793487113773
              ],
              [
                0.5707507632361877
              ]
            ]
          ],
          "weights": [
            [
              [
                0.20735534221385632,
                0.04803285026108767
              ],
              [
                0.41344819250054066,
                0.2550295048950331
              ],
              [
                0.4034879647152654,
                0.2637607586895531
              ],
              [
                -0.352744720157367,
                0.49353801050050305
              ],
              [
                0.10864799492722077,
                0.08629168160559147
              ]
            ],
            [
              [
                0.44147569063478265,
                -0.38905716993830003,
                0.37902847723751953,
                0.42108374780088564,
                0.12179547873293108
              ],
              [
                0.3567571156516524,
                -0.3571427912345442,
                0.15471573603147382,
                -0.08304329603187009,
                -0.23061705685146025
              ],
              [
                -0.0005704757564317523,
                0.07545392647689397,
                0.42283093016666407,
                -0.06355832030454642,
                0.3127664860764418
              ],
              [
                -0.32990850515430675,
                0.19314986824012467,
                -0.44777948521572075,
                0.37742049701702024,
                -0.06616453802957165
              ],
              [
                -0.4360875504673956,
                -0.2416761746155038,
                -0.35050425323029344,
                -0.2912983026611619,
                0.32241532072053675
              ],
              [
                -0.30888303766153813,
                -0.037230699444771066,
                0.4305717111982947,
                -0.2847824979330108,
                0.13759234145814767
              ],
              [
                0.3185086892874825,
                -0.0667257998239804,
                0.2636374947926635,
                -0.13931099124148982,
                -0.24304608676925774
              ],
              [
                -0.335471398616515,
                -0.4314462754616287,
                -0.3683651952229995,
                -0.07823203336528603,
                -0.016750524691545077
              ],
              [
                0.12983023250215545,
                -0.4659922608291906,
                -0.44324906824702254,
                0.06200879317644563,
                -0.1526842629436604
              ]
            ],
            [
              [
                -0.287599038813469,
                0.2734696815296031,
                -0.22135819243602983,
                0.06649203518285025,
                -0.24073589026779854,
                0.11300552304278519,
                -0.019139457935017666,
                -0.04003868485035274,
                -0.31154025557400156
              ],
              [
                -0.31991146995915837,
                -0.2112916222093791,
                -0.34175399078367297,
                -0.1991974856383871,
                0.37059422460281055,
                0.21583568995452385,
                0.2597954429651705,
                -0.17496500701508771,
                0.3340509036240277
              ],
              [
                -0.2022378830056098,
                -0.46710336700850336,
                -0.3598049046543401,
                0.10116568370502114,
                0.06642175210063189,
                -0.47476526001229835,
                0.054347392314740534,
                -0.001282625154810936,
                -0.21594939888487397
              ]
            ],
            [
              [
                0.1789205176132986,
                0.4084152879094767,
                0.035663037820612545
              ]
            ]
          ],
          "biases": [
            [
              0.20913865325909511,
              -0.031027870068960482,
              -0.31232461613776635,
              -0.42064179978549865,
              0.43486463435482403
            ],
            [
              -0.3581293941698852,
              0.23425915396703068,
              0.37414606391480604,
              0.07371478013740772,
              -0.0006533627329618598,
              -0.09568865926662291,
              -0.1328604933874277,
              -0.38921372897079404,
              -0.49264950186579004
            ],
            [
              -0.39096515860735565,
              -0.3000468457563327,
              0.3802792732812305
            ],
            [
              -0.481138257723256
            ]
          ],
          "gradients": [
            [
              [
                0.1789205176132986,
                0.4084152879094767,
                0.035663037820612545
              ]
            ],
            [
              [
                -0.287599038813469,
                0.2734696815296031,
                -0.22135819243602983,
                0.06649203518285025,
                -0.24073589026779854,
                0.11300552304278519,
                -0.019139457935017666,
                -0.04003868485035274,
                -0.31154025557400156
              ],
              [
                -0.31991146995915837,
                -0.2112916222093791,
                -0.34175399078367297,
                -0.1991974856383871,
                0.37059422460281055,
                0.21583568995452385,
                0.2597954429651705,
                -0.17496500701508771,
                0.3340509036240277
              ],
              [
                -0.2022378830056098,
                -0.46710336700850336,
                -0.3598049046543401,
                0.10116568370502114,
                0.06642175210063189,
                -0.47476526001229835,
                0.054347392314740534,
                -0.001282625154810936,
                -0.21594939888487397
              ]
            ],
            [
              [
                0.44147569063478265,
                -0.38905716993830003,
                0.37902847723751953,
                0.42108374780088564,
                0.12179547873293108
              ],
              [
                0.3567571156516524,
                -0.3571427912345442,
                0.15471573603147382,
                -0.08304329603187009,
                -0.23061705685146025
              ],
              [
                -0.0005704757564317523,
                0.07545392647689397,
                0.42283093016666407,
                -0.06355832030454642,
                0.3127664860764418
              ],
              [
                -0.32990850515430675,
                0.19314986824012467,
                -0.44777948521572075,
                0.37742049701702024,
                -0.06616453802957165
              ],
              [
                -0.4360875504673956,
                -0.2416761746155038,
                -0.35050425323029344,
                -0.2912983026611619,
                0.32241532072053675
              ],
              [
                -0.30888303766153813,
                -0.037230699444771066,
                0.4305717111982947,
                -0.2847824979330108,
                0.13759234145814767
              ],
              [
                0.3185086892874825,
                -0.0667257998239804,
                0.2636374947926635,
                -0.13931099124148982,
                -0.24304608676925774
              ],
              [
                -0.335471398616515,
                -0.4314462754616287,
                -0.3683651952229995,
                -0.07823203336528603,
                -0.016750524691545077
              ],
              [
                0.12983023250215545,
                -0.4659922608291906,
                -0.44324906824702254,
                0.06200879317644563,
                -0.1526842629436604
              ]
            ],
            [
              [
                0.20735534221385632,
                0.04803285026108767
              ],
              [
                0.41344819250054066,
                0.2550295048950331
              ],
              [
                0.4034879647152654,
                0.2637607586895531
              ],
              [
                -0.352744720157367,
                0.49353801050050305
              ],
              [
                0.10864799492722077,
                0.08629168160559147
              ]
            ]
          ]
        }
      },
      {
        "input": [
          1,
          0
        ],
        "data": {
          "targents": [
            1
          ],
          "outputs": [
            0.437623509033194
          ],
          "errors": [
            [
              [
                -0.04967540218127458,
                0.01605425852987432,
                -0.06018994828640738,
                -0.08438585978653597,
                -0.029972134736779593
              ],
              [
                -0.10647278467815423,
                -0.030381668277593935,
                -0.1079846166538015,
                -0.03703284819097434,
                0.06222839745393414,
                0.051422598849446735,
                0.05883480609752878,
                -0.04424095969351472,
                0.04104737677807187
              ],
              [
                0.10062069285733147,
                0.22968315647172927,
                0.02005605406677257
              ],
              [
                0.562376490966806
              ]
            ]
          ],
          "weights": [
            [
              [
                0.20557102006329264,
                0.04803285026108767
              ],
              [
                0.41402874160686004,
                0.2550295048950331
              ],
              [
                0.4012355247663027,
                0.2637607586895531
              ],
              [
                -0.35547946539160313,
                0.49353801050050305
              ],
              [
                0.10760312358035354,
                0.08629168160559147
              ]
            ],
            [
              [
                0.4390738167786364,
                -0.3914264129465745,
                0.3769449257799442,
                0.41982531918941896,
                0.11927409715623667
              ],
              [
                0.3560741476214553,
                -0.3578164807483706,
                0.15412328233905645,
                -0.08340112769222885,
                -0.23133400666312656
              ],
              [
                -0.0026445706156872336,
                0.07340800939793735,
                0.42103171687488655,
                -0.06464501364071142,
                0.31058919248000205
              ],
              [
                -0.3307396037728192,
                0.19233006057784532,
                -0.4485004376227588,
                0.3769850543821749,
                -0.06703698882034533
              ],
              [
                -0.4347587229558283,
                -0.24036539999554313,
                -0.3493515363665383,
                -0.29060208185173797,
                0.32381026542077435
              ],
              [
                -0.307722870072249,
                -0.036086293404330616,
                0.4315781207836729,
                -0.28417464415887456,
                0.13881023438704815
              ],
              [
                0.31983776077804504,
                -0.06541478453962046,
                0.26479042330066876,
                -0.13861464260264325,
                -0.24165088595059736
              ],
              [
                -0.336229808315202,
                -0.4321943817251711,
                -0.3690230922349908,
                -0.07862939164519707,
                -0.01754666985002728
              ],
              [
                0.13055971789332785,
                -0.4652726859196878,
                -0.4426162621793068,
                0.06239099696518716,
                -0.15191848125156066
              ]
            ],
            [
              [
                -0.285831141570432,
                0.27528906212490634,
                -0.21900510436478882,
                0.06804672387840885,
                -0.23943796062820671,
                0.11463226604258281,
                -0.01747776938443127,
                -0.039176034000302576,
                -0.31062809289457705
              ],
              [
                -0.31568203147303275,
                -0.20693901724831998,
                -0.33612456786956,
                -0.19547811776854185,
                0.3736993335629572,
                0.21972743732699,
                0.2637707925141811,
                -0.172901239610245,
                0.3362331209204006
              ],
              [
                -0.20186214344663014,
                -0.4667166854492737,
                -0.3593047917220921,
                0.10149610904343975,
                0.06669760722303089,
                -0.47441952063195564,
                0.054700558838201074,
                -0.001099281891378698,
                -0.21575553263827252
              ]
            ],
            [
              [
                0.18600150323097886,
                0.416299428316861,
                0.04393019744373872
              ]
            ]
          ],
          "biases": [
            [
              0.20735433110853144,
              -0.03044732096264108,
              -0.31457705608672903,
              -0.42337654501973476,
              0.4338197630079568
            ],
            [
              -0.36211495429400997,
              0.23312586791196155,
              0.37070440533496535,
              0.07233569292819308,
              0.0015516331407349022,
              -0.09376352998918808,
              -0.13065509266609412,
              -0.3904721994958391,
              -0.4914390270197658
            ],
            [
              -0.38757310051920274,
              -0.29193183732939376,
              0.38100020342301094
            ],
            [
              -0.46037735572567795
            ]
          ],
          "gradients": [
            [
              [
                0.18600150323097886,
                0.416299428316861,
                0.04393019744373872
              ]
            ],
            [
              [
                -0.285831141570432,
                0.27528906212490634,
                -0.21900510436478882,
                0.06804672387840885,
                -0.23943796062820671,
                0.11463226604258281,
                -0.01747776938443127,
                -0.039176034000302576,
                -0.31062809289457705
              ],
              [
                -0.31568203147303275,
                -0.20693901724831998,
                -0.33612456786956,
                -0.19547811776854185,
                0.3736993335629572,
                0.21972743732699,
                0.2637707925141811,
                -0.172901239610245,
                0.3362331209204006
              ],
              [
                -0.20186214344663014,
                -0.4667166854492737,
                -0.3593047917220921,
                0.10149610904343975,
                0.06669760722303089,
                -0.47441952063195564,
                0.054700558838201074,
                -0.001099281891378698,
                -0.21575553263827252
              ]
            ],
            [
              [
                0.4390738167786364,
                -0.3914264129465745,
                0.3769449257799442,
                0.41982531918941896,
                0.11927409715623667
              ],
              [
                0.3560741476214553,
                -0.3578164807483706,
                0.15412328233905645,
                -0.08340112769222885,
                -0.23133400666312656
              ],
              [
                -0.0026445706156872336,
                0.07340800939793735,
                0.42103171687488655,
                -0.06464501364071142,
                0.31058919248000205
              ],
              [
                -0.3307396037728192,
                0.19233006057784532,
                -0.4485004376227588,
                0.3769850543821749,
                -0.06703698882034533
              ],
              [
                -0.4347587229558283,
                -0.24036539999554313,
                -0.3493515363665383,
                -0.29060208185173797,
                0.32381026542077435
              ],
              [
                -0.307722870072249,
                -0.036086293404330616,
                0.4315781207836729,
                -0.28417464415887456,
                0.13881023438704815
              ],
              [
                0.31983776077804504,
                -0.06541478453962046,
                0.26479042330066876,
                -0.13861464260264325,
                -0.24165088595059736
              ],
              [
                -0.336229808315202,
                -0.4321943817251711,
                -0.3690230922349908,
                -0.07862939164519707,
                -0.01754666985002728
              ],
              [
                0.13055971789332785,
                -0.4652726859196878,
                -0.4426162621793068,
                0.06239099696518716,
                -0.15191848125156066
              ]
            ],
            [
              [
                0.20557102006329264,
                0.04803285026108767
              ],
              [
                0.41402874160686004,
                0.2550295048950331
              ],
              [
                0.4012355247663027,
                0.2637607586895531
              ],
              [
                -0.35547946539160313,
                0.49353801050050305
              ],
              [
                0.10760312358035354,
                0.08629168160559147
              ]
            ]
          ]
        }
      },
      {
        "input": [
          1,
          1
        ],
        "data": {
          "targents": [
            0
          ],
          "outputs": [
            0.44533230128442775
          ],
          "errors": [
            [
              [
                0.03996471902115748,
                -0.013977922620472216,
                0.048786463016925546,
                0.06755552558140775,
                0.023723870408988972
              ],
              [
                0.08615003025236073,
                0.02469250547933668,
                0.08748467310767988,
                0.02861789608631455,
                -0.050752312358650346,
                -0.04094956857092747,
                -0.04852329403352938,
                0.03532098821115379,
                -0.032383754733108186
              ],
              [
                -0.08283247747621474,
                -0.1853915824357394,
                -0.019563535923499447
              ],
              [
                -0.44533230128442775
              ]
            ]
          ],
          "weights": [
            [
              [
                0.20699282311674896,
                0.049454653314543975
              ],
              [
                0.41355457872522555,
                0.25455534201339863
              ],
              [
                0.403009984345104,
                0.2655352182683544
              ],
              [
                -0.3529969989880722,
                0.496020476904034
              ],
              [
                0.10841058257235253,
                0.08709914059759047
              ]
            ],
            [
              [
                0.4410466147551504,
                -0.38932108122483106,
                0.37883240174484534,
                0.4212058964238325,
                0.12137148827913585
              ],
              [
                0.356639912399696,
                -0.35721270755473616,
                0.15466457822106255,
                -0.08300520171188473,
                -0.23073251069767148
              ],
              [
                -0.0009489613143886827,
                0.07521753074386606,
                0.42265399236389484,
                -0.06345841489735243,
                0.31239188892372666
              ],
              [
                -0.33008516342934,
                0.19302846661410353,
                -0.44787430132624795,
                0.37744303611687113,
                -0.06634121693532659
              ],
              [
                -0.4358444707258022,
                -0.2415240889485688,
                -0.3503903263714794,
                -0.2913618954116596,
                0.3226559466503979
              ],
              [
                -0.30866289696016563,
                -0.037089471859490845,
                0.43067874934350214,
                -0.2848324812697416,
                0.13781083958156143
              ],
              [
                0.31872231650746174,
                -0.06660516502188639,
                0.2637232211461771,
                -0.13939523797254802,
                -0.24283677672048964
              ],
              [
                -0.33563365007812773,
                -0.431558173222003,
                -0.3684527173881229,
                -0.07821219611883752,
                -0.016912860910050467
              ],
              [
                0.12998709762378224,
                -0.46588377516062357,
                -0.4431641170578343,
                0.06199027346612146,
                -0.15252726567066235
              ]
            ],
            [
              [
                -0.2873233529932026,
                0.2738030910813251,
                -0.22096185204326052,
                0.06675018792654591,
                -0.24046916944818908,
                0.11329009932373664,
                -0.018851656640987417,
                -0.03985449878300815,
                -0.31135571959577435
              ],
              [
                -0.31918072562416416,
                -0.21042307997535317,
                -0.3407124309253177,
                -0.19851802396567578,
                0.37128152318299873,
                0.21658054354410264,
                0.2605495255841223,
                -0.17449199326001488,
                0.33452710041630923
              ],
              [
                -0.20223681319223558,
                -0.4670897883383012,
                -0.3597960988811982,
                0.10117057019027186,
                0.06643868764879823,
                -0.4747565166202161,
                0.054355598344634624,
                -0.0012696332394916685,
                -0.2159382277355444
              ]
            ],
            [
              [
                0.1803314430809176,
                0.4099819486973674,
                0.03734810325731398
              ]
            ]
          ],
          "biases": [
            [
              0.20877613416198776,
              -0.030921483844275566,
              -0.31280259650792774,
              -0.4208940786162038,
              0.43462722199995585
            ],
            [
              -0.35889795398685426,
              0.23404844867646257,
              0.37346939987978556,
              0.07340287507814024,
              -0.0002188729886720205,
              -0.09529641213077762,
              -0.1324740242565565,
              -0.389500056755116,
              -0.49237278689023506
            ],
            [
              -0.3903755232207385,
              -0.29850250135544465,
              0.38029656117457283
            ],
            [
              -0.4768776818599998
            ]
          ],
          "gradients": [
            [
              [
                0.1803314430809176,
                0.4099819486973674,
                0.03734810325731398
              ]
            ],
            [
              [
                -0.2873233529932026,
                0.2738030910813251,
                -0.22096185204326052,
                0.06675018792654591,
                -0.24046916944818908,
                0.11329009932373664,
                -0.018851656640987417,
                -0.03985449878300815,
                -0.31135571959577435
              ],
              [
                -0.31918072562416416,
                -0.21042307997535317,
                -0.3407124309253177,
                -0.19851802396567578,
                0.37128152318299873,
                0.21658054354410264,
                0.2605495255841223,
                -0.17449199326001488,
                0.33452710041630923
              ],
              [
                -0.20223681319223558,
                -0.4670897883383012,
                -0.3597960988811982,
                0.10117057019027186,
                0.06643868764879823,
                -0.4747565166202161,
                0.054355598344634624,
                -0.0012696332394916685,
                -0.2159382277355444
              ]
            ],
            [
              [
                0.4410466147551504,
                -0.38932108122483106,
                0.37883240174484534,
                0.4212058964238325,
                0.12137148827913585
              ],
              [
                0.356639912399696,
                -0.35721270755473616,
                0.15466457822106255,
                -0.08300520171188473,
                -0.23073251069767148
              ],
              [
                -0.0009489613143886827,
                0.07521753074386606,
                0.42265399236389484,
                -0.06345841489735243,
                0.31239188892372666
              ],
              [
                -0.33008516342934,
                0.19302846661410353,
                -0.44787430132624795,
                0.37744303611687113,
                -0.06634121693532659
              ],
              [
                -0.4358444707258022,
                -0.2415240889485688,
                -0.3503903263714794,
                -0.2913618954116596,
                0.3226559466503979
              ],
              [
                -0.30866289696016563,
                -0.037089471859490845,
                0.43067874934350214,
                -0.2848324812697416,
                0.13781083958156143
              ],
              [
                0.31872231650746174,
                -0.06660516502188639,
                0.2637232211461771,
                -0.13939523797254802,
                -0.24283677672048964
              ],
              [
                -0.33563365007812773,
                -0.431558173222003,
                -0.3684527173881229,
                -0.07821219611883752,
                -0.016912860910050467
              ],
              [
                0.12998709762378224,
                -0.46588377516062357,
                -0.4431641170578343,
                0.06199027346612146,
                -0.15252726567066235
              ]
            ],
            [
              [
                0.20699282311674896,
                0.049454653314543975
              ],
              [
                0.41355457872522555,
                0.25455534201339863
              ],
              [
                0.403009984345104,
                0.2655352182683544
              ],
              [
                -0.3529969989880722,
                0.496020476904034
              ],
              [
                0.10841058257235253,
                0.08709914059759047
              ]
            ]
          ]
        }
      }
    ],
    [
      {
        "input": [
          0,
          0
        ],
        "data": {
          "targents": [
            0
          ],
          "outputs": [
            0.43924692470347965
          ],
          "errors": [
            [
              [
                0.0389549712292954,
                -0.012740030871380136,
                0.047331189828180624,
                0.0661655287776798,
                0.0234340005345687
              ],
              [
                0.08355571644252574,
                0.02386835964950183,
                0.0847614869109394,
                0.028802791171532317,
                -0.04890396442814909,
                -0.04018785415778099,
                -0.046319086440831304,
                0.034600800240249426,
                -0.032037775971705054
              ],
              [
                -0.07921003180063364,
                -0.1800833101492584,
                -0.016405039499283177
              ],
              [
                -0.43924692470347965
              ]
            ]
          ],
          "weights": [
            [
              [
                0.20699282311674896,
                0.049454653314543975
              ],
              [
                0.41355457872522555,
                0.25455534201339863
              ],
              [
                0.403009984345104,
                0.2655352182683544
              ],
              [
                -0.3529969989880722,
                0.496020476904034
              ],
              [
                0.10841058257235253,
                0.08709914059759047
              ]
            ],
            [
              [
                0.44277245698634426,
                -0.38778200031329674,
                0.3801531299314897,
                0.4224449355879935,
                0.12326920271666017
              ],
              [
                0.35713131596925657,
                -0.3567744810238862,
                0.15504063260981585,
                -0.08265240685202502,
                -0.2301921695055563
              ],
              [
                0.0005786591985544678,
                0.07657984042029148,
                0.4238230282314112,
                -0.06236168565449289,
                0.31407164124990833
              ],
              [
                -0.32949024574916425,
                0.19355900551791713,
                -0.4474190311197716,
                0.37787014717712125,
                -0.06568705292751513
              ],
              [
                -0.4368119460803098,
                -0.24238686934853187,
                -0.35113070225722764,
                -0.29205647793660233,
                0.3215921229039318
              ],
              [
                -0.30949122173142596,
                -0.03782815980034388,
                0.43004486065233105,
                -0.28542716299306825,
                0.1369000240684352
              ],
              [
                0.31776505622963896,
                -0.06745883576556029,
                0.26299066251015335,
                -0.14008248675640564,
                -0.2438893680969541
              ],
              [
                -0.3350662419654832,
                -0.4310521669489865,
                -0.3680184993152566,
                -0.07780483508610689,
                -0.016288946077123306
              ],
              [
                0.12944314907462354,
                -0.46636886053733717,
                -0.44358038232703056,
                0.06159975482918328,
                -0.1531253846622777
              ]
            ],
            [
              [
                -0.2887185656705965,
                0.2723720722541727,
                -0.22277416443553621,
                0.06547964676821566,
                -0.24152154050583255,
                0.11204451885191813,
                -0.020130915610743032,
                -0.040579806176478196,
                -0.31212344729894487
              ],
              [
                -0.3225166439001112,
                -0.21384460985109863,
                -0.3450456240858118,
                -0.20155585578808566,
                0.36876533056150673,
                0.21360239209276724,
                0.2574908496947602,
                -0.1762261849203686,
                0.33269148286677463
              ],
              [
                -0.2025459508123923,
                -0.467406859535971,
                -0.36019765338898485,
                0.10088905606962106,
                0.0662055135316526,
                -0.47503250019534454,
                0.054072152616336716,
                -0.0014303397791700623,
                -0.21610833335380028
              ]
            ],
            [
              [
                0.17481530604495657,
                0.40379037308031535,
                0.030853724084463855
              ]
            ]
          ],
          "biases": [
            [
              0.21022114224255717,
              -0.03139912082111961,
              -0.31107039551321003,
              -0.4185195940103354,
              0.4354657691389642
            ],
            [
              -0.3557714580683809,
              0.2349386640314846,
              0.3762368019124667,
              0.0744806142047408,
              -0.001971528991879928,
              -0.09679698615180174,
              -0.134208174862814,
              -0.38847215332557444,
              -0.49335819151648974
            ],
            [
              -0.39304136298534437,
              -0.3048764569075878,
              0.3797058903944816
            ],
            [
              -0.49310625668287955
            ]
          ],
          "gradients": [
            [
              [
                0.17481530604495657,
                0.40379037308031535,
                0.030853724084463855
              ]
            ],
            [
              [
                -0.2887185656705965,
                0.2723720722541727,
                -0.22277416443553621,
                0.06547964676821566,
                -0.24152154050583255,
                0.11204451885191813,
                -0.020130915610743032,
                -0.040579806176478196,
                -0.31212344729894487
              ],
              [
                -0.3225166439001112,
                -0.21384460985109863,
                -0.3450456240858118,
                -0.20155585578808566,
                0.36876533056150673,
                0.21360239209276724,
                0.2574908496947602,
                -0.1762261849203686,
                0.33269148286677463
              ],
              [
                -0.2025459508123923,
                -0.467406859535971,
                -0.36019765338898485,
                0.10088905606962106,
                0.0662055135316526,
                -0.47503250019534454,
                0.054072152616336716,
                -0.0014303397791700623,
                -0.21610833335380028
              ]
            ],
            [
              [
                0.44277245698634426,
                -0.38778200031329674,
                0.3801531299314897,
                0.4224449355879935,
                0.12326920271666017
              ],
              [
                0.35713131596925657,
                -0.3567744810238862,
                0.15504063260981585,
                -0.08265240685202502,
                -0.2301921695055563
              ],
              [
                0.0005786591985544678,
                0.07657984042029148,
                0.4238230282314112,
                -0.06236168565449289,
                0.31407164124990833
              ],
              [
                -0.32949024574916425,
                0.19355900551791713,
                -0.4474190311197716,
                0.37787014717712125,
                -0.06568705292751513
              ],
              [
                -0.4368119460803098,
                -0.24238686934853187,
                -0.35113070225722764,
                -0.29205647793660233,
                0.3215921229039318
              ],
              [
                -0.30949122173142596,
                -0.03782815980034388,
                0.43004486065233105,
                -0.28542716299306825,
                0.1369000240684352
              ],
              [
                0.31776505622963896,
                -0.06745883576556029,
                0.26299066251015335,
                -0.14008248675640564,
                -0.2438893680969541
              ],
              [
                -0.3350662419654832,
                -0.4310521669489865,
                -0.3680184993152566,
                -0.07780483508610689,
                -0.016288946077123306
              ],
              [
                0.12944314907462354,
                -0.46636886053733717,
                -0.44358038232703056,
                0.06159975482918328,
                -0.1531253846622777
              ]
            ],
            [
              [
                0.20699282311674896,
                0.049454653314543975
              ],
              [
                0.41355457872522555,
                0.25455534201339863
              ],
              [
                0.403009984345104,
                0.2655352182683544
              ],
              [
                -0.3529969989880722,
                0.496020476904034
              ],
              [
                0.10841058257235253,
                0.08709914059759047
              ]
            ]
          ]
        }
      },
      {
        "input": [
          0,
          1
        ],
        "data": {
          "targents": [
            1
          ],
          "outputs": [
            0.43262850222753835
          ],
          "errors": [
            [
              [
                -0.04959659938722375,
                0.015311333956527892,
                -0.05979997854220513,
                -0.08483011482555423,
                -0.030228120480149476
              ],
              [
                -0.10607057654851511,
                -0.030158535455954323,
                -0.10745101226098097,
                -0.03791554592938881,
                0.06168741788797654,
                0.051733594016001985,
                0.05794080649052716,
                -0.04442322488674032,
                0.04147821256582808
              ],
              [
                0.09918522202427828,
                0.2290991487606796,
                0.01750552364566053
              ],
              [
                0.5673714977724617
              ]
            ]
          ],
          "weights": [
            [
              [
                0.20699282311674896,
                0.047625785311694646
              ],
              [
                0.41355457872522555,
                0.25512242765788706
              ],
              [
                0.403009984345104,
                0.26329388110024887
              ],
              [
                -0.3529969989880722,
                0.4928441195935907
              ],
              [
                0.10841058257235253,
                0.0860395817112375
              ]
            ],
            [
              [
                0.4405413932655729,
                -0.3899775053144238,
                0.3782221662513368,
                0.42039246183767615,
                0.12078841635324078
              ],
              [
                0.3564953880619269,
                -0.3574002735048002,
                0.15449024326825783,
                -0.08323743063450902,
                -0.2308992767324516
              ],
              [
                -0.0013744342463414246,
                0.07465787540153578,
                0.4221326450877443,
                -0.06415843981720222,
                0.31189993833552165
              ],
              [
                -0.3302920345541718,
                0.19276999563225006,
                -0.4481129714349713,
                0.37713253916518724,
                -0.06657858583860442
              ],
              [
                -0.4355857005788227,
                -0.24118016776217208,
                -0.3500693988510193,
                -0.29092838971580653,
                0.3229556218887308
              ],
              [
                -0.3084016905616368,
                -0.03675599359106639,
                0.4309878391507354,
                -0.2844248455310768,
                0.13811150630597474
              ],
              [
                0.31898925267660294,
                -0.06625415057586873,
                0.2640501924798498,
                -0.1389562835694538,
                -0.2425281475170575
              ],
              [
                -0.3357894790987288,
                -0.43176387712035386,
                -0.36864445393207607,
                -0.07847017925239909,
                -0.01709313503908355
              ],
              [
                0.13014633616010318,
                -0.4656768808558403,
                -0.44297178082911176,
                0.06224665389399804,
                -0.15234348994705754
              ]
            ],
            [
              [
                -0.2869196219237085,
                0.27414234409494126,
                -0.2204830554964202,
                0.06708834874479813,
                -0.2402679688186859,
                0.1135892154338306,
                -0.01854053374487365,
                -0.03971505145063738,
                -0.3112016321616517
              ],
              [
                -0.31817587019084587,
                -0.2095730202152614,
                -0.3395172769848078,
                -0.19767412726929665,
                0.37179014500145724,
                0.2173296783534727,
                0.26132837257617353,
                -0.17413956904625566,
                0.3349157830538634
              ],
              [
                -0.20220560547078958,
                -0.4670719386828769,
                -0.3597641944462684,
                0.10119340923502941,
                0.06644267897099637,
                -0.47474025632348754,
                0.054373039767674505,
                -0.001266735306780093,
                -0.21593393352148793
              ]
            ],
            [
              [
                0.18188016709166394,
                0.4115775950788434,
                0.03920158172891797
              ]
            ]
          ],
          "biases": [
            [
              0.20839227423970785,
              -0.030832035176631172,
              -0.31331173268131557,
              -0.4216959513207787,
              0.4344062102526112
            ],
            [
              -0.3597233448171261,
              0.2338122439087708,
              0.372777284359433,
              0.07306040440781666,
              0.0002005216326356131,
              -0.09486709784240553,
              -0.1320397537318634,
              -0.38975322442025645,
              -0.4921126351035895
            ],
            [
              -0.38971144894485077,
              -0.296841517879565,
              0.38033588270723734
            ],
            [
              -0.4722161134826054
            ]
          ],
          "gradients": [
            [
              [
                0.18188016709166394,
                0.4115775950788434,
                0.03920158172891797
              ]
            ],
            [
              [
                -0.2869196219237085,
                0.27414234409494126,
                -0.2204830554964202,
                0.06708834874479813,
                -0.2402679688186859,
                0.1135892154338306,
                -0.01854053374487365,
                -0.03971505145063738,
                -0.3112016321616517
              ],
              [
                -0.31817587019084587,
                -0.2095730202152614,
                -0.3395172769848078,
                -0.19767412726929665,
                0.37179014500145724,
                0.2173296783534727,
                0.26132837257617353,
                -0.17413956904625566,
                0.3349157830538634
              ],
              [
                -0.20220560547078958,
                -0.4670719386828769,
                -0.3597641944462684,
                0.10119340923502941,
                0.06644267897099637,
                -0.47474025632348754,
                0.054373039767674505,
                -0.001266735306780093,
                -0.21593393352148793
              ]
            ],
            [
              [
                0.4405413932655729,
                -0.3899775053144238,
                0.3782221662513368,
                0.42039246183767615,
                0.12078841635324078
              ],
              [
                0.3564953880619269,
                -0.3574002735048002,
                0.15449024326825783,
                -0.08323743063450902,
                -0.2308992767324516
              ],
              [
                -0.0013744342463414246,
                0.07465787540153578,
                0.4221326450877443,
                -0.06415843981720222,
                0.31189993833552165
              ],
              [
                -0.3302920345541718,
                0.19276999563225006,
                -0.4481129714349713,
                0.37713253916518724,
                -0.06657858583860442
              ],
              [
                -0.4355857005788227,
                -0.24118016776217208,
                -0.3500693988510193,
                -0.29092838971580653,
                0.3229556218887308
              ],
              [
                -0.3084016905616368,
                -0.03675599359106639,
                0.4309878391507354,
                -0.2844248455310768,
                0.13811150630597474
              ],
              [
                0.31898925267660294,
                -0.06625415057586873,
                0.2640501924798498,
                -0.1389562835694538,
                -0.2425281475170575
              ],
              [
                -0.3357894790987288,
                -0.43176387712035386,
                -0.36864445393207607,
                -0.07847017925239909,
                -0.01709313503908355
              ],
              [
                0.13014633616010318,
                -0.4656768808558403,
                -0.44297178082911176,
                0.06224665389399804,
                -0.15234348994705754
              ]
            ],
            [
              [
                0.20699282311674896,
                0.047625785311694646
              ],
              [
                0.41355457872522555,
                0.25512242765788706
              ],
              [
                0.403009984345104,
                0.26329388110024887
              ],
              [
                -0.3529969989880722,
                0.4928441195935907
              ],
              [
                0.10841058257235253,
                0.0860395817112375
              ]
            ]
          ]
        }
      },
      {
        "input": [
          1,
          0
        ],
        "data": {
          "targents": [
            1
          ],
          "outputs": [
            0.4410165280169053
          ],
          "errors": [
            [
              [
                -0.04972311164979269,
                0.0166636366835166,
                -0.06047324288829982,
                -0.08415255860412468,
                -0.029814249264526076
              ],
              [
                -0.10680263980741667,
                -0.03057889070558579,
                -0.10841066587531019,
                -0.03643971896271843,
                0.06256432211226466,
                0.051145357064936364,
                0.05942903040885894,
                -0.04412894083702397,
                0.040681406185068054
              ],
              [
                0.10166800728576371,
                0.23006507308762417,
                0.021913036262059614
              ],
              [
                0.5589834719830947
              ]
            ]
          ],
          "weights": [
            [
              [
                0.20520638116006684,
                0.047625785311694646
              ],
              [
                0.41415712955883904,
                0.25512242765788706
              ],
              [
                0.40074679307253713,
                0.26329388110024887
              ],
              [
                -0.35572286985476054,
                0.4928441195935907
              ],
              [
                0.10737102359474045,
                0.0860395817112375
              ]
            ],
            [
              [
                0.438132702391608,
                -0.3923548115517605,
                0.37613324166145945,
                0.4191310335278295,
                0.1182594105249175
              ],
              [
                0.35580822817284735,
                -0.3580784798732527,
                0.1538943074406301,
                -0.08359729538379883,
                -0.23162076049911343
              ],
              [
                -0.003458701962814941,
                0.07260076516949687,
                0.4203250747880892,
                -0.06524996813711956,
                0.30971156071524575
              ],
              [
                -0.33110936119129536,
                0.19196331855576124,
                -0.44882179369552105,
                0.37670450625751806,
                -0.0674367382280503
              ],
              [
                -0.43424953995264676,
                -0.2398614169730918,
                -0.3489106205211747,
                -0.29022864411599597,
                0.32435852420703976
              ],
              [
                -0.30724819187112723,
                -0.03561752469854549,
                0.43198820487015643,
                -0.2838207597518233,
                0.13932262266083517
              ],
              [
                0.32033120742939414,
                -0.06492968115618655,
                0.2652139957357628,
                -0.138253503592994,
                -0.24111916165347572
              ],
              [
                -0.33654521128615794,
                -0.43250976230734506,
                -0.36929985872757976,
                -0.07886595522605744,
                -0.01788661631445938
              ],
              [
                0.13086948348879182,
                -0.4649631559550709,
                -0.44234463508229566,
                0.0626253652190824,
                -0.15158422115555023
              ]
            ],
            [
              [
                -0.2851348375521497,
                0.2759819330183769,
                -0.21810510563572602,
                0.06865995291731523,
                -0.23895293232617515,
                0.11523670777129948,
                -0.016857765837577508,
                -0.03884306251682771,
                -0.310277831556486
              ],
              [
                -0.3139372779046898,
                -0.2052042754274737,
                -0.33387000659348254,
                -0.19394180563500102,
                0.37491315729470226,
                0.22124222287390563,
                0.26532469122671554,
                -0.17206872753320998,
                0.3371096694310631
              ],
              [
                -0.2017958969911442,
                -0.4666496494736011,
                -0.3592183210972951,
                0.10155418085897855,
                0.06674455387006567,
                -0.4743620640939006,
                0.05475932972621565,
                -0.0010665647617933453,
                -0.215721869281421
              ]
            ],
            [
              [
                0.18894872293284978,
                0.41948078749403916,
                0.04743527775136404
              ]
            ]
          ],
          "biases": [
            [
              0.20660583228302573,
              -0.030229484343017653,
              -0.3155749239538824,
              -0.42442182218746705,
              0.4333666512749991
            ],
            [
              -0.36372197889810115,
              0.23267149937353304,
              0.36931722063143446,
              0.07170357187201207,
              0.0024186632278206093,
              -0.09295219077563062,
              -0.1298119933880031,
              -0.39100780487032877,
              -0.49091214832244406
            ],
            [
              -0.3862797544912788,
              -0.2886917638414059,
              0.38112364975606716
            ],
            [
              -0.45154594299771794
            ]
          ],
          "gradients": [
            [
              [
                0.18894872293284978,
                0.41948078749403916,
                0.04743527775136404
              ]
            ],
            [
              [
                -0.2851348375521497,
                0.2759819330183769,
                -0.21810510563572602,
                0.06865995291731523,
                -0.23895293232617515,
                0.11523670777129948,
                -0.016857765837577508,
                -0.03884306251682771,
                -0.310277831556486
              ],
              [
                -0.3139372779046898,
                -0.2052042754274737,
                -0.33387000659348254,
                -0.19394180563500102,
                0.37491315729470226,
                0.22124222287390563,
                0.26532469122671554,
                -0.17206872753320998,
                0.3371096694310631
              ],
              [
                -0.2017958969911442,
                -0.4666496494736011,
                -0.3592183210972951,
                0.10155418085897855,
                0.06674455387006567,
                -0.4743620640939006,
                0.05475932972621565,
                -0.0010665647617933453,
                -0.215721869281421
              ]
            ],
            [
              [
                0.438132702391608,
                -0.3923548115517605,
                0.37613324166145945,
                0.4191310335278295,
                0.1182594105249175
              ],
              [
                0.35580822817284735,
                -0.3580784798732527,
                0.1538943074406301,
                -0.08359729538379883,
                -0.23162076049911343
              ],
              [
                -0.003458701962814941,
                0.07260076516949687,
                0.4203250747880892,
                -0.06524996813711956,
                0.30971156071524575
              ],
              [
                -0.33110936119129536,
                0.19196331855576124,
                -0.44882179369552105,
                0.37670450625751806,
                -0.0674367382280503
              ],
              [
                -0.43424953995264676,
                -0.2398614169730918,
                -0.3489106205211747,
                -0.29022864411599597,
                0.32435852420703976
              ],
              [
                -0.30724819187112723,
                -0.03561752469854549,
                0.43198820487015643,
                -0.2838207597518233,
                0.13932262266083517
              ],
              [
                0.32033120742939414,
                -0.06492968115618655,
                0.2652139957357628,
                -0.138253503592994,
                -0.24111916165347572
              ],
              [
                -0.33654521128615794,
                -0.43250976230734506,
                -0.36929985872757976,
                -0.07886595522605744,
                -0.01788661631445938
              ],
              [
                0.13086948348879182,
                -0.4649631559550709,
                -0.44234463508229566,
                0.0626253652190824,
                -0.15158422115555023
              ]
            ],
            [
              [
                0.20520638116006684,
                0.047625785311694646
              ],
              [
                0.41415712955883904,
                0.25512242765788706
              ],
              [
                0.40074679307253713,
                0.26329388110024887
              ],
              [
                -0.35572286985476054,
                0.4928441195935907
              ],
              [
                0.10737102359474045,
                0.0860395817112375
              ]
            ]
          ]
        }
      },
      {
        "input": [
          1,
          1
        ],
        "data": {
          "targents": [
            0
          ],
          "outputs": [
            0.44873154759685413
          ],
          "errors": [
            [
              [
                0.040533763178550945,
                -0.014629485629239705,
                0.04964853811820838,
                0.06829137799712418,
                0.02390253232977657
              ],
              [
                0.08756491974588798,
                0.02515969265729706,
                0.08898452278412364,
                0.028523351655670413,
                -0.05173204406662293,
                -0.0413188393962579,
                -0.049679465014473345,
                0.035705329252482716,
                -0.03255619300122524
              ],
              [
                -0.08478725285810688,
                -0.18823426295934728,
                -0.021285705596056206
              ],
              [
                -0.44873154759685413
              ]
            ]
          ],
          "weights": [
            [
              [
                0.20664892457938192,
                0.04906832873100972
              ],
              [
                0.4136609315122767,
                0.2546262296113247
              ],
              [
                0.40255321827436186,
                0.2651003063020736
              ],
              [
                -0.3532140703531298,
                0.49535291909522144
              ],
              [
                0.10818479511263762,
                0.08685335322913468
              ]
            ],
            [
              [
                0.4401373387951112,
                -0.3902139188988122,
                0.3780507579868927,
                0.42053312855028463,
                0.12039120912348827
              ],
              [
                0.35638440482900824,
                -0.35746314016984343,
                0.15444544386746104,
                -0.08319430239202924,
                -0.2310080346272364
              ],
              [
                -0.0017323849264142927,
                0.07444442093342044,
                0.4219763673089608,
                -0.06404253694426734,
                0.31154738502356244
              ],
              [
                -0.33045753920189636,
                0.19265944524771184,
                -0.44819829942804956,
                0.3771604075697291,
                -0.0667435685334912
              ],
              [
                -0.43535637043343434,
                -0.24104347933623976,
                -0.3499693489333139,
                -0.2910027902429953,
                0.3231814829921466
              ],
              [
                -0.3081962225243848,
                -0.03662999352171063,
                0.43108137495753207,
                -0.2844838371347065,
                0.13831445458881733
              ],
              [
                0.3191898117403247,
                -0.06614865814401602,
                0.26412220429480876,
                -0.139051825528832,
                -0.24233296068761515
              ],
              [
                -0.33594327009710895,
                -0.43186690684144113,
                -0.3687240774762091,
                -0.07844494184752084,
                -0.01724649156116535
              ],
              [
                0.13029373364285005,
                -0.4655780398377335,
                -0.4428953632477773,
                0.06222267074951996,
                -0.15219649314290967
              ]
            ],
            [
              [
                -0.28666076947378366,
                0.2744599015136557,
                -0.22010824833478626,
                0.06733217724680672,
                -0.2400116062290014,
                0.1138595648679114,
                -0.018267376863812395,
                -0.039537836964552465,
                -0.3110244226246952
              ],
              [
                -0.3174907594874258,
                -0.20874867399708977,
                -0.3385347826478956,
                -0.19703383505273855,
                0.3724477929082046,
                0.21803523056015614,
                0.26204208946084934,
                -0.17368666878546574,
                0.33537106132338557
              ],
              [
                -0.20220269192813456,
                -0.4670554046067642,
                -0.35975233463780376,
                0.10120021197441423,
                0.06646232425189738,
                -0.4747291936838043,
                0.05438354452867936,
                -0.0012517832002293602,
                -0.2159209014022148
              ]
            ],
            [
              [
                0.18321159302178627,
                0.4130618808374576,
                0.04079015774052933
              ]
            ]
          ],
          "biases": [
            [
              0.2080483757023408,
              -0.030725682389580046,
              -0.3137684987520577,
              -0.4219130226858363,
              0.4341804227928963
            ],
            [
              -0.36045113690868774,
              0.23361161140432196,
              0.37213394601855776,
              0.0727671097429314,
              0.0006127159720508753,
              -0.09449903411465556,
              -0.13167433856931357,
              -0.3900256544350387,
              -0.4918515639532356
            ],
            [
              -0.38915199416590235,
              -0.2953804310357125,
              0.3803579455061629
            ],
            [
              -0.4681964554836618
            ]
          ],
          "gradients": [
            [
              [
                0.18321159302178627,
                0.4130618808374576,
                0.04079015774052933
              ]
            ],
            [
              [
                -0.28666076947378366,
                0.2744599015136557,
                -0.22010824833478626,
                0.06733217724680672,
                -0.2400116062290014,
                0.1138595648679114,
                -0.018267376863812395,
                -0.039537836964552465,
                -0.3110244226246952
              ],
              [
                -0.3174907594874258,
                -0.20874867399708977,
                -0.3385347826478956,
                -0.19703383505273855,
                0.3724477929082046,
                0.21803523056015614,
                0.26204208946084934,
                -0.17368666878546574,
                0.33537106132338557
              ],
              [
                -0.20220269192813456,
                -0.4670554046067642,
                -0.35975233463780376,
                0.10120021197441423,
                0.06646232425189738,
                -0.4747291936838043,
                0.05438354452867936,
                -0.0012517832002293602,
                -0.2159209014022148
              ]
            ],
            [
              [
                0.4401373387951112,
                -0.3902139188988122,
                0.3780507579868927,
                0.42053312855028463,
                0.12039120912348827
              ],
              [
                0.35638440482900824,
                -0.35746314016984343,
                0.15444544386746104,
                -0.08319430239202924,
                -0.2310080346272364
              ],
              [
                -0.0017323849264142927,
                0.07444442093342044,
                0.4219763673089608,
                -0.06404253694426734,
                0.31154738502356244
              ],
              [
                -0.33045753920189636,
                0.19265944524771184,
                -0.44819829942804956,
                0.3771604075697291,
                -0.0667435685334912
              ],
              [
                -0.43535637043343434,
                -0.24104347933623976,
                -0.3499693489333139,
                -0.2910027902429953,
                0.3231814829921466
              ],
              [
                -0.3081962225243848,
                -0.03662999352171063,
                0.43108137495753207,
                -0.2844838371347065,
                0.13831445458881733
              ],
              [
                0.3191898117403247,
                -0.06614865814401602,
                0.26412220429480876,
                -0.139051825528832,
                -0.24233296068761515
              ],
              [
                -0.33594327009710895,
                -0.43186690684144113,
                -0.3687240774762091,
                -0.07844494184752084,
                -0.01724649156116535
              ],
              [
                0.13029373364285005,
                -0.4655780398377335,
                -0.4428953632477773,
                0.06222267074951996,
                -0.15219649314290967
              ]
            ],
            [
              [
                0.20664892457938192,
                0.04906832873100972
              ],
              [
                0.4136609315122767,
                0.2546262296113247
              ],
              [
                0.40255321827436186,
                0.2651003063020736
              ],
              [
                -0.3532140703531298,
                0.49535291909522144
              ],
              [
                0.10818479511263762,
                0.08685335322913468
              ]
            ]
          ]
        }
      }
    ],
    [
      {
        "input": [
          0,
          0
        ],
        "data": {
          "targents": [
            0
          ],
          "outputs": [
            0.44255400986476207
          ],
          "errors": [
            [
              [
                0.0395141706000285,
                -0.01337582195397935,
                0.048183700282353,
                0.06687643477908806,
                0.02362521395505495
              ],
              [
                0.08493088796638298,
                0.02433743805367132,
                0.0862256970643982,
                0.028732004096581547,
                -0.04982365351925554,
                -0.04051942906912158,
                -0.04740245409734238,
                0.03497866907379914,
                -0.03219061474227663
              ],
              [
                -0.08108102514550238,
                -0.18280219168689738,
                -0.01805184787108742
              ],
              [
                -0.44255400986476207
              ]
            ]
          ],
          "weights": [
            [
              [
                0.20664892457938192,
                0.04906832873100972
              ],
              [
                0.4136609315122767,
                0.2546262296113247
              ],
              [
                0.40255321827436186,
                0.2651003063020736
              ],
              [
                -0.3532140703531298,
                0.49535291909522144
              ],
              [
                0.10818479511263762,
                0.08685335322913468
              ]
            ],
            [
              [
                0.44189133322014246,
                -0.38864906655793285,
                0.37939271886140075,
                0.4217920150318655,
                0.12232016959191323
              ],
              [
                0.35688534318421605,
                -0.3570162205293952,
                0.15482870601677906,
                -0.0828347661731697,
                -0.23045712621468745
              ],
              [
                -0.00017704555642865014,
                0.07583204019791177,
                0.4231663394954833,
                -0.0629262302563995,
                0.31325787401763877
              ],
              [
                -0.3298643170129644,
                0.19318869728965896,
                -0.44774443198350367,
                0.3775861782469687,
                -0.06609117070650165
              ],
              [
                -0.4363421662186958,
                -0.24192297177942007,
                -0.35072356990186243,
                -0.29171032099107214,
                0.32209735121124006
              ],
              [
                -0.3090312124880983,
                -0.037374942297305834,
                0.43044253378111813,
                -0.2850831307029035,
                0.13739617194860526
              ],
              [
                0.3182104099705199,
                -0.0670224460707439,
                0.26337287531362996,
                -0.13975476712912902,
                -0.24341006063143344
              ],
              [
                -0.33537014284054,
                -0.4313555827937335,
                -0.3682855844323011,
                -0.07803359381515335,
                -0.01661619319446521
              ],
              [
                0.1297470657492134,
                -0.4660657577693487,
                -0.4433136125387333,
                0.06183031327597716,
                -0.15279769274829805
              ]
            ],
            [
              [
                -0.28808798925039697,
                0.2729940187396275,
                -0.22196370951389768,
                0.0660309850177462,
                -0.24109158213624807,
                0.11258168895054445,
                -0.019579723801169457,
                -0.040280596070211463,
                -0.3118119909139091
              ],
              [
                -0.3208790464700003,
                -0.21222874875684816,
                -0.3429397348934241,
                -0.20012292670056778,
                0.3698838792293309,
                0.21500149293466286,
                0.2589265160100526,
                -0.17545001389189702,
                0.333501337104342
              ],
              [
                -0.20254225019687497,
                -0.4674041614170899,
                -0.3601937783425632,
                0.10089063766228781,
                0.06620538081868892,
                -0.47503322067479503,
                0.054071316334158986,
                -0.0014284973966982618,
                -0.21610827641563768
              ]
            ],
            [
              [
                0.17763084107928145,
                0.4067726157107178,
                0.03423447083793296
              ]
            ]
          ],
          "biases": [
            [
              0.20951423766363692,
              -0.031227157346982948,
              -0.31200536267057716,
              -0.41951353348938786,
              0.4350258929683967
            ],
            [
              -0.35727260478397116,
              0.23451939573465264,
              0.37495248185982627,
              0.07384212786026731,
              -0.0011737113547109531,
              -0.09601217599561225,
              -0.13344917886749366,
              -0.3889870517060006,
              -0.4928422178781728
            ],
            [
              -0.39188418545071996,
              -0.3018667818528362,
              0.37970791377472085
            ],
            [
              -0.48457316384504756
            ]
          ],
          "gradients": [
            [
              [
                0.17763084107928145,
                0.4067726157107178,
                0.03423447083793296
              ]
            ],
            [
              [
                -0.28808798925039697,
                0.2729940187396275,
                -0.22196370951389768,
                0.0660309850177462,
                -0.24109158213624807,
                0.11258168895054445,
                -0.019579723801169457,
                -0.040280596070211463,
                -0.3118119909139091
              ],
              [
                -0.3208790464700003,
                -0.21222874875684816,
                -0.3429397348934241,
                -0.20012292670056778,
                0.3698838792293309,
                0.21500149293466286,
                0.2589265160100526,
                -0.17545001389189702,
                0.333501337104342
              ],
              [
                -0.20254225019687497,
                -0.4674041614170899,
                -0.3601937783425632,
                0.10089063766228781,
                0.06620538081868892,
                -0.47503322067479503,
                0.054071316334158986,
                -0.0014284973966982618,
                -0.21610827641563768
              ]
            ],
            [
              [
                0.44189133322014246,
                -0.38864906655793285,
                0.37939271886140075,
                0.4217920150318655,
                0.12232016959191323
              ],
              [
                0.35688534318421605,
                -0.3570162205293952,
                0.15482870601677906,
                -0.0828347661731697,
                -0.23045712621468745
              ],
              [
                -0.00017704555642865014,
                0.07583204019791177,
                0.4231663394954833,
                -0.0629262302563995,
                0.31325787401763877
              ],
              [
                -0.3298643170129644,
                0.19318869728965896,
                -0.44774443198350367,
                0.3775861782469687,
                -0.06609117070650165
              ],
              [
                -0.4363421662186958,
                -0.24192297177942007,
                -0.35072356990186243,
                -0.29171032099107214,
                0.32209735121124006
              ],
              [
                -0.3090312124880983,
                -0.037374942297305834,
                0.43044253378111813,
                -0.2850831307029035,
                0.13739617194860526
              ],
              [
                0.3182104099705199,
                -0.0670224460707439,
                0.26337287531362996,
                -0.13975476712912902,
                -0.24341006063143344
              ],
              [
                -0.33537014284054,
                -0.4313555827937335,
                -0.3682855844323011,
                -0.07803359381515335,
                -0.01661619319446521
              ],
              [
                0.1297470657492134,
                -0.4660657577693487,
                -0.4433136125387333,
                0.06183031327597716,
                -0.15279769274829805
              ]
            ],
            [
              [
                0.20664892457938192,
                0.04906832873100972
              ],
              [
                0.4136609315122767,
                0.2546262296113247
              ],
              [
                0.40255321827436186,
                0.2651003063020736
              ],
              [
                -0.3532140703531298,
                0.49535291909522144
              ],
              [
                0.10818479511263762,
                0.08685335322913468
              ]
            ]
          ]
        }
      },
      {
        "input": [
          0,
          1
        ],
        "data": {
          "targents": [
            1
          ],
          "outputs": [
            0.43584295666564604
          ],
          "errors": [
            [
              [
                -0.04965857163758784,
                0.015920046765060227,
                -0.06010176578905979,
                -0.08461478684918033,
                -0.03009478573442261
              ],
              [
                -0.1064180982817756,
                -0.030373098315353324,
                -0.10789906081618836,
                -0.037359297075581034,
                0.06200076808100692,
                0.05144671562039431,
                0.058501593925918985,
                -0.04432708322085913,
                0.04111206024250887
              ],
              [
                0.10021169010828192,
                0.22948363618873993,
                0.01931361784804442
              ],
              [
                0.5641570433343539
              ]
            ]
          ],
          "weights": [
            [
              [
                0.20664892457938192,
                0.04723691756170952
              ],
              [
                0.4136609315122767,
                0.25521584422337423
              ],
              [
                0.40255321827436186,
                0.2628477292769969
              ],
              [
                -0.3532140703531298,
                0.4921844227631923
              ],
              [
                0.10818479511263762,
                0.08579828330604752
              ]
            ],
            [
              [
                0.43965326959315676,
                -0.39085274672109666,
                0.3774561317977443,
                0.4197337660650021,
                0.11983105005958876
              ],
              [
                0.3562451492710917,
                -0.3576465791170241,
                0.15427474891053805,
                -0.08342352443919591,
                -0.23116913419981308
              ],
              [
                -0.002139864121701896,
                0.07389937649522343,
                0.4214679208285697,
                -0.06473134841095131,
                0.3110748752993177
              ],
              [
                -0.330653926194676,
                0.19241121890637755,
                -0.44842767749458257,
                0.37686000931106917,
                -0.06696935469260581
              ],
              [
                -0.4351095771543452,
                -0.24070931903170956,
                -0.3496570157574475,
                -0.29057676288410994,
                0.3234682065696004
              ],
              [
                -0.3079480827301652,
                -0.03630845270652318,
                0.43137976141494533,
                -0.2840870237654759,
                0.13860080232819114
              ],
              [
                0.3194459666402242,
                -0.06580587130912323,
                0.2644419973145028,
                -0.13861847984566822,
                -0.24203590477510653
              ],
              [
                -0.33609109515012403,
                -0.43206545908324595,
                -0.3689094214400693,
                -0.07869662203672255,
                -0.017418018689514675
              ],
              [
                0.13044414860985473,
                -0.4653793842214502,
                -0.44271042966495916,
                0.06247138981215482,
                -0.15202241426954993
              ]
            ],
            [
              [
                -0.2862718197981034,
                0.27478377436056817,
                -0.21964860056922508,
                0.06765700520793798,
                -0.23982170080965698,
                0.11414591699280803,
                -0.017969430604344673,
                -0.03940655217002884,
                -0.3108785812467736
              ],
              [
                -0.31652814662244205,
                -0.20794112710982435,
                -0.33739355243686087,
                -0.19622755725214006,
                0.37292606588394334,
                0.21874883024508626,
                0.2627842091431141,
                -0.17335611375099264,
                0.3357374566323522
              ],
              [
                -0.2021674599406952,
                -0.4670348219995458,
                -0.35971602541407843,
                0.10122618813796937,
                0.06646743739447258,
                -0.47471042181484113,
                0.054403621339619956,
                -0.0012481270370668443,
                -0.21591565515564204
              ]
            ],
            [
              [
                0.18468498076368817,
                0.41457952125732267,
                0.042551058910093184
              ]
            ]
          ],
          "biases": [
            [
              0.20768282649433673,
              -0.030637542734933385,
              -0.31425793969565385,
              -0.422682029821417,
              0.43397082304530954
            ],
            [
              -0.361238778666054,
              0.2333848791163195,
              0.37147408221336986,
              0.07244282567966973,
              0.0010106155318989165,
              -0.09409271271269982,
              -0.13125959295307785,
              -0.3902646839350497,
              -0.49160688578028827
            ],
            [
              -0.38851579812033177,
              -0.2937973168016566,
              0.3804030244368204
            ],
            [
              -0.46376559595885275
            ]
          ],
          "gradients": [
            [
              [
                0.18468498076368817,
                0.41457952125732267,
                0.042551058910093184
              ]
            ],
            [
              [
                -0.2862718197981034,
                0.27478377436056817,
                -0.21964860056922508,
                0.06765700520793798,
                -0.23982170080965698,
                0.11414591699280803,
                -0.017969430604344673,
                -0.03940655217002884,
                -0.3108785812467736
              ],
              [
                -0.31652814662244205,
                -0.20794112710982435,
                -0.33739355243686087,
                -0.19622755725214006,
                0.37292606588394334,
                0.21874883024508626,
                0.2627842091431141,
                -0.17335611375099264,
                0.3357374566323522
              ],
              [
                -0.2021674599406952,
                -0.4670348219995458,
                -0.35971602541407843,
                0.10122618813796937,
                0.06646743739447258,
                -0.47471042181484113,
                0.054403621339619956,
                -0.0012481270370668443,
                -0.21591565515564204
              ]
            ],
            [
              [
                0.43965326959315676,
                -0.39085274672109666,
                0.3774561317977443,
                0.4197337660650021,
                0.11983105005958876
              ],
              [
                0.3562451492710917,
                -0.3576465791170241,
                0.15427474891053805,
                -0.08342352443919591,
                -0.23116913419981308
              ],
              [
                -0.002139864121701896,
                0.07389937649522343,
                0.4214679208285697,
                -0.06473134841095131,
                0.3110748752993177
              ],
              [
                -0.330653926194676,
                0.19241121890637755,
                -0.44842767749458257,
                0.37686000931106917,
                -0.06696935469260581
              ],
              [
                -0.4351095771543452,
                -0.24070931903170956,
                -0.3496570157574475,
                -0.29057676288410994,
                0.3234682065696004
              ],
              [
                -0.3079480827301652,
                -0.03630845270652318,
                0.43137976141494533,
                -0.2840870237654759,
                0.13860080232819114
              ],
              [
                0.3194459666402242,
                -0.06580587130912323,
                0.2644419973145028,
                -0.13861847984566822,
                -0.24203590477510653
              ],
              [
                -0.33609109515012403,
                -0.43206545908324595,
                -0.3689094214400693,
                -0.07869662203672255,
                -0.017418018689514675
              ],
              [
                0.13044414860985473,
                -0.4653793842214502,
                -0.44271042966495916,
                0.06247138981215482,
                -0.15202241426954993
              ]
            ],
            [
              [
                0.20664892457938192,
                0.04723691756170952
              ],
              [
                0.4136609315122767,
                0.25521584422337423
              ],
              [
                0.40255321827436186,
                0.2628477292769969
              ],
              [
                -0.3532140703531298,
                0.4921844227631923
              ],
              [
                0.10818479511263762,
                0.08579828330604752
              ]
            ]
          ]
        }
      },
      {
        "input": [
          1,
          0
        ],
        "data": {
          "targents": [
            1
          ],
          "outputs": [
            0.4442425800752911
          ],
          "errors": [
            [
              [
                -0.04975724433749432,
                0.01722668473422577,
                -0.06072263975356335,
                -0.08392344137990161,
                -0.029655504648205388
              ],
              [
                -0.10709369483313443,
                -0.030751460258702658,
                -0.1087887106602236,
                -0.035873814972567995,
                0.0628807861934334,
                0.050890924065146954,
                0.059989122466329654,
                -0.04401643343244344,
                0.04034122482932247
              ],
              [
                0.10264004840807182,
                0.23040564508759062,
                0.02364806671493768
              ],
              [
                0.5557574199247088
              ]
            ]
          ],
          "weights": [
            [
              [
                0.20486087117996632,
                0.04723691756170952
              ],
              [
                0.4142838065093859,
                0.25521584422337423
              ],
              [
                0.40028055162129267,
                0.2628477292769969
              ],
              [
                -0.3559313119508997,
                0.4921844227631923
              ],
              [
                0.10715059018070357,
                0.08579828330604752
              ]
            ],
            [
              [
                0.4372386310977373,
                -0.39323721258573563,
                0.3753625753955068,
                0.4184697347624963,
                0.11729535350364088
              ],
              [
                0.35555434240888745,
                -0.3583287538546128,
                0.15367580081465504,
                -0.08378515269098948,
                -0.23189457470970282
              ],
              [
                -0.0042332937702174445,
                0.07183210574377236,
                0.4196528611202128,
                -0.06582723113225185,
                0.30887649141703893
              ],
              [
                -0.33145812915705203,
                0.1916170650337938,
                -0.4491249430537023,
                0.3764390197012623,
                -0.06781387642364273
              ],
              [
                -0.4337665107703624,
                -0.2393830352204367,
                -0.34849254114472555,
                -0.28987368540318764,
                0.3248786076754947
              ],
              [
                -0.3068007168251571,
                -0.035175423957113136,
                0.4323745584583518,
                -0.2834863928958408,
                0.13980569149866537
              ],
              [
                0.3208000481809141,
                -0.06446870998338528,
                0.2656160223638179,
                -0.1379096360759593,
                -0.24061393626689564
              ],
              [
                -0.33684418379853887,
                -0.4328091373516902,
                -0.3695623695166994,
